{"input_dim": 17, "hidden_dim": 32, "weights1": [[0.022740738436732542, -0.013826569955708131, 0.06404226504432821, -0.01292259196000243, -0.0535669373161111, 0.05201473537855749, 0.1921389974506938, 0.09453604121962603, -0.1124601872179607, -0.10395528912257743, -0.06232744625373522, 0.010301496276394113, -0.23250307746388343, -0.021879166393254573, -0.13516450629918655, -0.07322673547034517, -0.09638144958520925, -0.00276473130836433, 0.03028328578184572, 0.07985365485611481, -0.021516879590445084, 0.10883779270781722, 0.014061827937482528, 0.04706073608253131, 0.06721350537370513, 0.0030144166067881863, -0.07434992493538084, -0.021994008427875047, -0.054799257008820136, 0.022019512347004944, -0.10096181835387359, -0.04300282258424604], [-0.01740052428357705, 0.06459350401452045, 0.02146591225063409, 0.027985937228234593, -0.06538286094183395, 0.02110815554812975, 0.10621093789915421, 0.14930010074875155, -0.14671287202418454, 0.14455723604750795, 0.13458754237823045, 0.09351844502937665, 0.026445563032930355, -0.03139228145364278, 0.14877726447923273, 0.19602583164499648, 0.16120854244498756, 0.13102429059987183, 0.032710144863983645, -0.12689691389776725, -0.00290202165557564, 0.05180718316152305, -0.12371081543220147, 0.04831941028265316, 0.029989468830759446, 0.06800756910396202, -0.11841179667571891, -0.05091609198797889, -0.02531839367775832, -0.11698019077728641, 0.1739367877130134, -0.06034431936450528], [0.031418939653890934, -0.015348309001452743, 0.15834728788021224, 0.12448476503242636, 0.06333526228249152, -0.18628146914725835, 0.033016288319009914, 0.06832560530432887, 0.07958983877044447, -0.06862584589715841, 0.18220113633283233, -0.11665579204199547, -0.0661528021815219, 0.09350499881140222, 0.007880657508068014, 0.20023925836452552, -0.00010302529037841887, -0.06380549489278783, -0.040784246725192784, -0.11517966243146965, -0.13022462498222812, 0.049200838730712654, 0.06324191218403455, 0.138263086208564, -0.08845747977745666, 0.16731404195204252, -0.028738770780866632, 0.1726949931003833, -0.024953453681695877, -0.07354832923422751, 0.024978537155866686, 0.09239206196665714], [0.048433051177624496, -0.047881046562417776, -0.1341219714076669, -0.20970420020721628, 0.05026828498748657, 0.17944210076756034, 0.15316290016094125, -0.10786662355608899, -0.055333311913083744, -0.05968947238112146, -0.07130680950592722, 0.10776435559412327, -0.2250141173574592, 0.03863695975663059, -0.07320120571818985, 0.010927969747781388, -0.13762148171901434, 0.05709641410061153, 0.03913823165158129, -0.13166356853877062, 0.11753211879551846, -0.026521309081343772, 0.26793385835214073, 0.17338741507928224, 0.04941940786260618, 0.06844083513461104, 0.0075593610742885125, 0.07062768064424316, -0.026797050768180897, -0.07695146401767057, -0.14227417685154137, -0.045034324372680484], [-0.0503158271549957, -0.07633977784483353, -0.10430010800715656, 0.0036901519852470185, 0.035867194917034446, 0.20043876672598326, 0.04911451963325448, 0.10409794837463311, 0.07591163638095706, 0.11550269431831672, -0.23653039062769743, 0.1740798860727224, 0.033962000824864266, 0.04237713528533473, 0.0478712795377656, 0.03827571602707609, -0.021837516681653277, -0.04222581893512979, -0.19780256714342914, -0.015997940682063592, -0.08718057539191888, 0.06385602289978312, -0.00797983509730253, 0.036262194334280906, -0.08732032629588961, -0.05425565337446231, -0.0011533061686586777, -0.08306258224811128, 0.06743339673280455, -0.010607225344775094, -0.11857198050052338, -0.2716469715809048], [0.05784433164779907, -0.0031177379380201917, -0.053000841321815845, -0.046767018970938656, 0.1816475940881144, 0.06321292284333559, 0.059167912784518065, -0.14879331451418898, 0.10041906033931482, 0.09223492904777694, 0.10669348670051791, 0.05597878727354829, 0.09166547888245957, 0.03709468350944103, 0.07206744555004035, -0.015219295840829032, -0.2011677335110873, 0.09655094669905055, -0.2011350009668004, -0.029100135017124874, -0.027259639379817298, -0.14844633245245586, 0.08220912913589322, 0.007881688582623081, -0.04604656329460343, 0.04879076651311449, -0.04765790405584138, 0.20437293366207412, 0.07251039292207533, -0.047433298683443925, -0.19442649759855443, -0.16259900473124245], [0.14101517198292635, 0.0056114295387816515, -0.028312506567953474, 0.09477298270879622, -0.12826492440738985, 0.02190501745484387, 0.1223335917476219, 0.058203590419884516, -0.20899104700565913, 0.00700813722893303, -0.16051493968851138, 0.11859751064189905, 0.0806139358515022, -0.0476376747401162, 0.0012968724768903277, -0.12926461227593417, -0.17723264457102225, 0.17468006986846768, -0.016705888612406083, 0.17520975523065915, -0.10328535765138895, -0.04110224630368952, 0.16401000933850365, 0.1134828016509887, -0.030060550273856387, -0.07208684396416408, -0.08676167643217027, 0.5199087396481062, -0.02102704673690111, -0.2016660690233245, -0.06486006079033346, -0.0030756307515795306], [-0.006978591035517135, 0.21287365296114943, 0.10023982728439579, -0.07647340776691082, -0.047221594277604334, -0.0800554102298437, -0.08097351521850568, -0.14731430746656252, -0.048135066811156146, 0.21996196585988334, -0.1256138069727733, 0.032931147482841136, -0.1768511857086917, -0.0963854230732174, -0.2631618062158678, -0.11422789566319197, -0.0003597891168796441, -0.025002418967608173, 0.07322621660497931, 0.005802587580006603, 0.16437964590908005, -0.08971612055173299, 0.05489514623260736, 0.30423461113896416, 0.08159995525720522, -0.12212233497261363, 0.020191000196010993, 0.23371250919003603, 0.19419092384845493, -0.09216339244978113, 0.08047169314794977, -0.0022520278718922843], [-0.09973371072933551, 0.10991162703149186, -0.08307519568543376, 0.21511429548733657, -0.0704139562280167, 0.21096286392375102, 0.010415573302986066, -0.034665894733973024, -0.09527090094527882, -0.03461425684976276, -0.061048664606569936, 0.1061748028742286, -0.1416489366414042, -0.08274022267661552, 0.3189924869508819, 0.10412431916947958, -0.16092047208367244, -0.1698525083133562, -0.10251219682984516, -0.009136670736390276, -0.0009134895575406959, -0.13526327002360855, -0.2240163814355476, 0.18674176641748785, -0.036084434947774476, -0.03945268107219955, -0.02206612078160866, -0.05986234782792718, -0.11136144743668214, 0.011566182709262591, -0.1070544409695766, -0.15006596927684357], [-0.09685759509015499, 0.16764436289113765, -0.11705308084076832, -0.1627907499325051, 0.06398520751723784, 0.3309566224175019, 0.018848889464768287, 0.0561913772343058, -0.12417075592692874, -0.08135717816566364, -0.12609602800655342, 0.2093596046126129, 0.1203258954116498, 0.06370732356261834, 0.10002708974267235, -0.3772275156122734, -0.056715093009246945, -0.03899881758749862, -0.019432880015278164, -0.06864380768945451, 0.0013112165934636728, -0.019746809803652038, -0.12286856602428141, -0.0019273581829229356, 0.04351473295656466, -0.11233300193077796, 0.10301551978238768, 0.011075581298975054, 0.10307317025299018, -0.028998189606931388, -0.09199936028121969, 0.01750082157406556], [0.07781242848000484, 0.02114941519730555, -0.11022182990542231, -0.03106793483438018, 0.09573856068419317, 0.009041055534737812, 0.03085838910174911, -0.03760271505497428, -0.16181777536352188, 0.03176359600790829, 0.029404214297498024, 0.00012219374791477486, 0.06441905231896893, -0.02299324816033148, 0.08333268067739989, -0.034031012746620896, -0.09801521015952169, -0.09769144643405382, 0.1066832343684847, -0.11565496479951867, -0.1156109652681509, -0.08607131189915526, 0.23937960396541313, 0.07680483878265909, 0.08925629535784052, -0.14250901432432644, -0.019127666443013225, 0.23560831194163462, 0.2566153330657689, 0.06221252216057821, -0.15290928749284466, 0.11515103459499788], [0.024323923907036513, -0.16339200674093646, 0.14748226520869098, -0.03443496446587216, -0.03674025993780988, -0.009646684993977113, 0.06859663589605686, 0.09933362044496503, -0.20006296941075538, 0.4059747134961773, 0.09468615879956256, -0.06527270700377821, -0.0818659851521416, -0.09690124307582064, 0.012610597464321482, -0.0648016294189627, -0.09307388747894335, -0.08718614591897385, 0.007744109618609122, -0.03937079744768504, 0.06173767582830503, 0.0566783862569369, -0.14048378638828474, 0.062187040398999964, 0.3308060131526729, 0.07189405658150542, 0.02266988564379923, 0.293631395394013, -0.33894137770486, -0.14791378337711042, -0.08665073572768982, 0.007795204962551682], [-0.10041133668346855, 0.10355325234065932, -0.09750001191003015, -0.09382307020780217, -0.10047872189929943, 0.08869659493498748, 0.08440448795266346, -0.048044593951821125, -0.12675854610605106, -0.20333793657291865, 0.05312512156361892, 0.1873576497278725, 0.15941569003382142, -0.10954720366375337, 0.0834493701248629, 0.04439913996466691, -0.14950885524573054, 0.2362298331302501, -0.12737184701538212, 0.26649346864245715, -0.13420444532864415, 0.0624022835770103, 0.012017262678353267, 0.04156428291180654, -0.16097409090583628, 0.01584229071622113, 0.005334375570673462, 0.17028014591015622, 0.2855239283104868, -0.2967183709983944, -0.07600587900644339, -0.06469643802937426], [-0.023871964192655807, 0.10712695188055316, 0.10153269959744687, -0.046436032398597865, -0.1489645394382512, 0.15613461960780942, 0.12538807206842564, -0.02997288064335807, 0.12978363925569422, -0.003509348067745532, -0.11371197204183754, 0.04678276979922141, 0.10778337155057705, -0.09374534425425159, 0.21104482023186294, -0.08965262145720566, 0.030416563089658025, 0.06264367198690902, -0.023777653790807863, 0.12158728392723867, -0.15743329573761575, 0.08225162312638436, 0.05148743691081087, -0.02875881963963292, 0.11401765584766645, 0.10399402224451834, 0.07697954306236166, 0.3157120202145923, 0.1392454657088858, 0.12835066324204059, -0.05398639371765149, -0.03103015082528998], [0.07288025101994616, -0.020437559080489897, 0.03016352331732358, 0.03567999052186084, 0.08442439176815353, -0.01815721097107832, -0.0384045292752709, -0.08283156502165506, -0.10498925413469068, 0.16649385493633692, -0.008452148800245243, 0.07291780265618712, -0.1297363846342752, -0.1938168107839183, -0.10541153203196589, 0.11466269675095052, 0.10290016524630013, -0.011085750650764227, -0.08329655739619658, -0.012715297404672182, -0.03268359817546226, -0.05452407770697636, -0.25873927005920105, -0.056526229258057385, 0.0386469061334467, 0.15164277898120943, 0.016074305913174443, 0.18253181575635577, -0.09448874357620048, -0.02526885812478079, -0.38994217300543393, 0.04509172081809283], [0.05470956613393338, 0.1763759069559374, -0.048676121079282916, 0.00941541561970465, -0.07055279547210834, -0.11762570649202814, -0.07131079667369583, -0.034499852408578745, 0.13554380286698137, 0.00022116025733781068, -0.07905448096678758, 0.014187782824173304, 0.021757135556003438, -0.06762320559749609, 0.11432336266295945, -0.188834889097665, -0.021354462808298655, 0.06650660656292455, -0.13384325194768548, 0.03612537486433768, 0.12928930501938052, 0.04536712642569682, -0.16901599429769265, -0.07281950274352487, 0.12323034025042633, 0.02983352450652942, -0.0009858938489975368, 0.04412005947154901, 0.07210489500058762, -0.07084652365979932, -0.02904000800729554, 0.014291364966681958], [-0.054395772178732565, -0.013345155853725456, 0.12978717611819932, -0.09678198646920558, 0.19266627091351407, 0.18793443773819862, -0.17134394379643106, -0.014102266511302246, 0.034269156964567934, -0.0760871087506429, -0.07410805036847287, -0.02374156967345463, 0.07391780871115504, -0.05113338389470944, 0.18266938116201167, 0.028997400233853207, -0.010257528408332377, 0.14492596851314582, 0.06262811950603524, 0.03692867756875739, -0.0331140382769525, 0.181398561389275, 0.08118215897399868, -0.020341133594471233, -0.15771991506827038, 0.03729515417619218, -0.11437400921015901, -0.1715945951758321, -0.027915150546776415, 0.028147110259062233, 0.12824812336831645, 0.028245182528524888]], "bias1": [0.032332093506090016, 0.010671835849915892, 0.0, -0.06955217871547348, 0.0, 0.08047079743897981, 0.1695923594234703, -0.0004301377332455126, -0.1426375271752544, 0.06834992209033586, 0.0, 0.0456625702401134, 0.0, 0.0, -0.01503712207723953, 0.0, -0.13005132909693204, 0.036884974596215536, -0.030278962019119518, -0.05582659344892971, -0.02456608343567317, -0.09913068797612028, 0.18356059212181391, 0.05690101696817939, -0.029339414307980746, -0.015967032923248175, 0.0, 0.21330506574321637, -0.013292540764479508, 0.0, 0.0, -0.07087960346397924], "weights2": [[0.8097460379506142, -1.2369383581831022, -0.030624358060017655, 0.13744711702485052, 0.8581404582402175, 0.11001695081951822, 0.799318517358434], [-0.5161603131074951, 0.38774273880913823, 0.4225146111884098, -1.2490957512686636, 0.16295351068178632, -0.32964423751443755, -1.9077050907594355], [0.9584066801413982, -0.3618586803043011, -0.8523900581258608, -0.37731674369381457, 0.13820030314832132, 1.50790948434714, -0.1659332030062026], [0.4720316056788174, 1.3748416800527885, 0.5309242478194418, 1.0655385770102914, -0.47954432664721336, 0.7681612543732065, -0.061056687750530705], [1.0744112374891797, -1.0035595719921404, -0.7795577532427447, 1.2687315727053823, -0.19608397256936924, -0.35896064670446953, 0.0775724193502392], [-0.6985416077115933, 1.3607411534308946, -1.266401526764253, -0.12221870112237272, 0.3193925042366879, -0.13045030230265345, -0.817680583764811], [-0.8608241187804726, 0.4109203185242983, -1.0346769566103502, 0.6697535270788472, -1.5353443385226482, -0.57028130007886, 0.02640895947085784], [-1.25301563619763, 0.6511824282225221, -0.019661998683349495, -1.033893721087194, -1.5192340981584225, -1.5660143797920902, 0.050738382218067465], [-1.1608203133731363, -1.3614896158328036, -0.23432328571633543, 2.2642219514875106, 0.26694726553264836, 0.7527301409195222, 0.20165724331756651], [0.8437419077377643, -1.3523471913681, -0.4634366167732387, 0.25308512036387093, -0.028493201153693064, -0.203054965899658, -0.6732750827552018], [-0.2583831027042033, -0.7741978238913314, -2.421833014859781, -1.1945084417055867, 0.47565293887443977, 1.5570779556716277, 1.813580171323687], [0.07803415273283709, 0.9159046278791375, 0.8920478217240028, -0.6575065127648511, -1.7157346161819493, 0.010586983869637459, -1.7738838039619513], [-0.3199296129548269, 0.6081170867893684, -1.4200694881000024, 0.03229538393163682, 1.2400181153090652, 0.36151247402096365, 0.5223217007496789], [0.906740413816745, 1.73296307213118, 0.1514230817231868, 1.2295008614331246, -0.06416921633742403, -0.5461688154334842, 0.3148209696175649], [-0.6277201848599107, -0.5214040378923064, -0.6238204794705111, -2.293182340289672, 0.09139396085601632, -1.2727305647169123, -0.11213687508527702], [1.4499687804848278, -0.5210003231072904, -0.5420091584474772, 1.3639093845017958, 0.5463057654642988, 0.9765270973526429, -0.35529123398699336], [0.7481012061775502, -0.6863844082669909, -0.6762981258145788, 0.593638636338432, -0.6001558617517472, 0.7653662426282382, 2.3897287766594357], [-1.6965926839418977, -0.7647176549798232, 1.1228927034650946, -0.13073407557753886, 1.1542199295287277, -1.0186895627450179, 0.3239082344093622], [-0.13632095101623654, 0.135814274404157, 0.323767944004867, -1.2228156904160439, -1.077586646703212, 1.3958831050397007, 0.2905311938453526], [0.08835678617173146, -0.04611593075222203, 0.3716767488651574, -1.1520632990088555, -1.0095835424870307, 1.2952452690885399, 0.14441103724183618], [0.8515441850548305, -0.6061499059193921, 1.3754460524458272, 0.3440501515494825, 0.48029364080952913, 0.5477549772142346, -0.7980720211786407], [-1.8675797631811608, -1.073427231492375, 1.6230334276618572, 1.282099227500967, -0.36279585882725685, -0.31732565508094884, 1.019701995691838], [-0.1671589888419086, -1.3171996174510936, 1.2653589730448054, 0.5128702061237905, -2.5304307900487637, -0.333723620431135, 0.13136247720181604], [0.48257843354433866, 0.17616516928748274, -0.6476383377896258, -0.11343254110889245, 0.24122734135287363, -0.3192885849600531, -0.4101687778162837], [1.2867502888174398, -0.9506033608735811, -0.37316875782415637, -2.0356736075236905, 0.5286221769042998, 0.816461906765095, 0.5395742594299672], [0.9172944522517502, 0.4403494055191443, 0.3419756247846586, 0.47456071332953575, -0.2676784037144337, 1.1879113653857059, -0.3489389915040505], [-1.4623519251551929, 0.8497836136184508, 1.8507027799514817, -0.9601511192906311, -0.1016311295928566, -0.6854420107180271, -0.3805832501275168], [0.099979614254846, -1.2415679280397491, -0.310522504332202, -1.4091345398192503, -0.648899795122354, -1.2641906669364487, -1.1068709095881257], [-1.722836914257766, 1.2185159525085723, 0.5486417544614114, -1.9185127507437638, -0.6189635985024462, -0.6889591863416185, -0.7001331360212942], [-1.4468835125564838, 0.7543857213684552, -0.395863785507999, 0.4681489094895136, 0.5267557651664272, 1.375445311670887, -1.8148722777431434], [1.7386021114249555, 1.2688152738912304, 0.5730659923355066, 2.3835922292341163, 0.20497859792723128, 0.8214789160702182, -0.7384139812679597], [1.1342653441642594, 0.16822167438790653, -0.45418544328230487, 2.1044215966070925, -0.3137533935928986, 4.1137320829161966e-05, -0.2069757421529016]], "bias2": [-0.0005268209279927351, -0.020462666070149134, -0.05999538573056305, 0.051268747756883504, -0.09094021693649168, -0.09198212333879703, -0.07451442337588922], "operations": ["rotate", "flip", "transpose", "translate", "recolor", "crop", "pad"]}