{"input_dim": 17, "hidden_dim": 32, "weights1": [[-0.002675773379311826, -0.009361966922785318, 0.06392829490763047, -0.018498579242403716, -0.040877504859361785, 0.06796194039936777, 0.15472836406689397, 0.1309099054335392, -0.014099708508839704, -0.10949425836153658, -0.06232744625373522, 0.0133409500343089, -0.21552707974940685, -0.04245844800589911, -0.0600100959173625, -0.0737293099834412, -0.06378908214093088, -0.04667965394858059, 0.03979912654115846, 0.14572263665265509, -0.017588216556109974, 0.11969752234400335, -0.04986227216579618, 0.0418280835989934, 0.10985007623044742, -0.004544328759931404, -0.07517134580833831, -0.020190148410228457, -0.03831439611426765, 0.022019512347004944, -0.10096181835387359, -0.033749228058503514], [-0.03470926052924367, 0.06789020479946914, 0.021775814444367176, 0.0028559335786815616, -0.05220653379740711, 0.030216389501178675, 0.10833946811775827, 0.19053518517730025, -0.05060662217858368, 0.177095979484691, 0.13458754237823045, 0.10756611959921715, 0.04396704180256055, -0.06165484762519298, 0.21888597839135793, 0.19601556851295363, 0.16838596404605802, 0.10968037671836416, 0.035140676201072765, -0.06354846039636078, -0.004067539535922604, 0.039634442503411735, -0.11234140213566794, 0.046914076603724764, 0.06382492219163471, 0.050748761105482015, -0.11930576839108287, 0.022320538434820042, -0.036589806245380385, -0.11698019077728641, 0.1739367877130134, -0.06301247038497942], [0.013201138847942436, -0.012581054354669274, 0.15921369639734195, 0.09800959067751495, 0.07691858278275114, -0.1760983297970821, 0.0360288078142578, 0.11089612275060443, 0.1789087148237548, -0.03588667769304179, 0.18220113633283233, -0.10186105664514958, -0.04748915704428312, 0.06204915583964628, 0.08062459933159288, 0.20012600877836487, 0.007082863443617007, -0.08634879442540501, -0.03837115297471869, -0.04846893134889568, -0.1314235994142285, 0.036028736086999254, 0.07552602590466488, 0.136893033888654, -0.05316062018203666, 0.14923671268362937, -0.029817546796641264, 0.24865894536895, -0.0361253738949678, -0.07354832923422751, 0.024978537155866686, 0.08885363979967936], [-0.020123411905597854, -0.010432499002436035, -0.1341219714076669, -0.23352652794663373, 0.0787090505751436, 0.2061042561073947, 0.05524980165447055, 0.078015439561888, 0.13162317723920466, -0.07598962725157375, -0.07130680950592722, 0.11870620054759663, -0.22478559085533412, -0.0283474952831846, 0.17907358179107996, 0.0032661636975470486, -0.03645388305305241, 0.03650119753193484, 0.06478126780882704, -0.09770302067989199, 0.12959437444813607, 0.034519411122355445, 0.12231926980534752, 0.15992410991559777, 0.05537250352853837, 0.03605506987243798, 0.005943868841696861, 0.12766520207340845, 0.010661789591484979, -0.07695146401767057, -0.14227417685154137, -0.007236196787237719], [-0.0740075060275255, -0.09613340076377598, -0.1038404118930982, -0.004622788172938343, 0.04849530340366556, 0.1709924877087405, 0.02313658398672325, 0.13710377057883893, 0.2142217046668229, 0.1371923872136261, -0.23653039062769743, 0.14118639078183667, 0.0551613849948549, 0.016583347360487957, 0.10292307767275449, 0.0382830243619421, 0.021584516603973807, -0.05722519981918502, -0.1908758233609434, 0.04991603531409633, -0.08464177714972851, 0.08597459842197747, -0.011707514556357847, 0.013069417652310886, -0.05884594181675809, -0.06682003420654924, -0.001802965588155896, -0.07234860376958376, 0.037519221247705355, -0.010607225344775094, -0.11857198050052338, -0.2516791584739084], [0.03424872614718023, -0.02316843346054949, -0.052829308452309084, -0.058743088068312764, 0.19579225129942954, 0.03411447609003096, 0.035639198534695056, -0.09840459379362936, 0.2226667914124185, 0.11321834911723865, 0.10669348670051791, 0.020984489793667332, 0.10871106613908499, 0.009620607630534232, 0.14068093904957207, -0.015892901375977625, -0.15751954303807514, 0.08867914221740313, -0.19423066711527134, 0.017511584675316976, -0.024788133354821957, -0.12149462706312575, 0.08054805754940605, -0.011995655909641694, -0.027474630871336093, 0.03508668874102872, -0.04847648368301073, 0.22709740341226586, 0.043642113861103324, -0.047433298683443925, -0.19442649759855443, -0.1440701556708028], [0.061728297867705895, 0.008784432496559507, -0.0279802087263627, 0.07315642580168814, -0.08863911210434768, 0.042053833737474795, 0.02738322824119533, 0.18302217288399536, 0.10224700115994848, -0.00654377385459201, -0.16051493968851138, 0.10650148711905051, 0.13104749220248602, -0.11597348285146966, 0.2251254486565358, -0.1313164591732337, -0.07587365894230984, 0.09470450907570509, 0.01035885556363954, 0.35219823068593475, -0.09175515250217449, 0.008690682861313942, 0.03366141507062507, 0.077982356195352, 0.0522237193170021, -0.10144462129923894, -0.08959773125436162, 0.5378912398444868, 0.013811327611649516, -0.2016660690233245, -0.06486006079033346, 0.02836507141660671], [-0.051938936955782444, 0.1489599468459642, 0.10013016076467195, -0.023012016021975716, -0.04933997010734554, -0.09090133169822456, -0.07048591651253473, -0.1452554504153814, 0.1170048915648657, 0.16167290870697512, -0.1256138069727733, -0.1223964902714632, -0.1773618451367505, -0.0963854230732174, -0.30048056041079857, -0.1143450983600813, 0.11623926307814278, -0.028235696635463423, 0.08215658660467888, -0.05589243217896613, 0.17028653845754463, 0.013828947362478026, -0.03916428812486782, 0.25985159825406384, -0.03156773536840951, -0.12376353619348304, 0.02042243574544951, 0.011940857949279413, 0.11453939873193507, -0.09216339244978113, 0.08047169314794977, 0.07705321424262222], [-0.08670121913737659, 0.030175377110430435, -0.08255312166456397, 0.21500467249184682, -0.05663533882157338, 0.014550768938191273, -0.08060876678850809, -0.01922268819454271, 0.21838351952202473, 0.08416571562955993, -0.061048664606569936, 0.031253521692991865, -0.11667892597120197, -0.11762146577832609, 0.31260522356732634, 0.11876818687620033, -0.08986197652122521, -0.15808903007103609, -0.09816983478266184, 0.17187265735173107, -0.010163622883068102, -0.0851105674030162, -0.10904549177578378, 0.10086245449938992, 0.07290834039826014, -0.05433351674637626, -0.015156214696010065, -0.00644967215694759, -0.28601425042148326, 0.011566182709262591, -0.1070544409695766, -0.11501572335368021], [-0.0848949970824197, 0.06875521059908704, -0.11717772815161341, -0.2087213885962566, 0.09485831902537238, 0.13118884865935745, -0.0645199804254062, 0.1932564619326217, 0.06513840278132076, 0.06404751900410742, -0.12609602800655342, 0.09043596803474496, 0.1472148932240633, 0.008130477392488143, 0.21020760374865363, -0.3770042673109948, 0.01230047394842936, -0.010027993099933439, -0.015232184705005604, -0.014911983570742231, -0.010109919722487483, 0.05141503289678372, 0.0059424844794196815, -0.04342683120477866, 0.12289890093747423, -0.13258901450418395, 0.1033239314074167, 0.1675715250284835, -0.07287201926474787, -0.028998189606931388, -0.09199936028121969, 0.04429447536894678], [0.02557729920775939, -0.04258538027508326, -0.11037964538578135, 0.010233137969298891, 0.09855627012382974, 0.012220715255907108, 0.06196175884111585, -0.015118518122597718, 0.0063275101073241675, -0.023719972815899194, 0.029404214297498024, -0.14067140626981248, 0.06617088301171535, -0.02349594178100395, 0.07885788392186818, -0.034371221673325104, 0.014355186554577359, -0.10661268654856418, 0.11632164331910168, -0.17143145656910225, -0.10364964163232127, 0.007893171602275616, 0.1559636144236689, 0.03677280737658453, -0.02411849076962098, -0.14496453070858747, -0.01886756438943845, 0.04703246255732433, 0.19092204386387243, 0.06221252216057821, -0.15290928749284466, 0.18366901835096436], [-0.0395564215479629, -0.08825491401158923, 0.14745093191734132, -0.005370099238036826, -0.03631644933829848, 0.021683767542507722, 0.08439074727271707, 0.09874736082343595, -0.13925349688462652, 0.20126973404749987, 0.09468615879956256, -0.03755890993034681, -0.08185234452035949, -0.09690124307582064, 0.012387434414609842, -0.0648016294189627, -0.0766720586106625, 0.07889317138333928, 0.03632793520866124, -0.039365318954890934, 0.07375335112988081, 0.1338686869156872, -0.10936148732195168, -0.05946423359421712, 0.09583866203577307, 0.07189405658150542, 0.02266988564379923, 0.11784466056274077, -0.11000578234131521, -0.14791378337711042, -0.08665073572768982, 0.013164586983435686], [-0.07969563985162398, -0.04679999488802368, -0.09753134520137983, -0.06219101846741439, -0.10092499701151446, 0.03765197408527455, 0.07960917709380493, -0.04615054931276946, -0.023998470735681086, -0.06028588164911983, 0.05312512156361892, 0.012212665561533883, 0.15887092902630737, -0.10954720366375337, 0.03568366243511997, 0.04439913996466691, -0.03714070312221456, 0.058492579126945804, -0.1436636788730787, 0.2124980740767776, -0.1344490447359248, 0.09241091491317917, -0.11172595087681449, 0.11450725709314866, -0.04085221027000416, 0.01584229071622113, 0.0055658111201119815, 0.10968993092901512, -0.029204030579450944, -0.2967183709983944, -0.07600587900644339, 0.01727229800072581], [-0.04950664600677075, 0.08489280996941224, 0.10153269959744687, -0.02687186494425885, -0.14701426240446547, 0.15429555865870598, 0.12114664076390488, -0.01305383723155103, 0.21035552019889234, -0.030353735261940528, -0.11371197204183754, -0.007111167826584765, 0.1075329340250326, -0.09600178439498092, 0.22300359933031993, -0.08994444459332433, 0.08612202003161587, 0.05503156918732111, -0.01732306048709713, 0.10479162952144824, -0.15008619533404574, 0.12580340402218032, -0.0016626555071194101, -0.04774777494769659, 0.07349837658409729, 0.10275984471192859, 0.07710872573051682, 0.23295942794246208, 0.11923112622347375, 0.12835066324204059, -0.05398639371765149, 0.002158179298520864], [0.055633682268492815, 0.005904741261888008, 0.03016352331732358, 0.03778445654263942, 0.08244803397278595, -0.003658096250120956, -0.03791434830758115, -0.0864169594494312, -0.08742268208532279, 0.11942578435568131, -0.008452148800245243, 0.06852238906654322, -0.1297363846342752, -0.1938168107839183, -0.09774858938799837, 0.11456338926741456, 0.09700031868185167, 0.040703516956946996, -0.08354238682788616, -0.02079742365675652, -0.032229057037382075, -0.038053292704480074, -0.2530571374618783, -0.08211844718603613, -0.016117658320754034, 0.15003190441725853, 0.016074305913174443, 0.14735623579554158, -0.03675983621340422, -0.02526885812478079, -0.38994217300543393, 0.04062632999565243], [0.043251877437368615, 0.17607073358516992, -0.04662792643337079, 0.019886569874386494, -0.07266874300053916, -0.10705285176912258, -0.06860060600637026, -0.12179109004806263, 0.24932576622080005, 0.008920852338821323, -0.07905448096678758, 0.03956817654490119, 0.05719390435360923, -0.06797152030284874, 0.05967482165231423, -0.18322492994473022, -0.021254935445055703, 0.0005058811577263135, -0.13384325194768548, 0.17302271378427733, 0.12875725451597742, 0.007101827762908539, -0.16895863339070186, -0.08810149970355803, 0.18995331797805215, 0.03307550738514743, -0.0012052214591871007, 0.003692520602064377, 0.0696798960441235, -0.07084652365979932, -0.02904000800729554, 0.013149087953221514], [-0.05363634612971088, -0.05183642994457273, 0.13015080725113978, -0.10497277644490008, 0.2057714126677769, 0.1697989391082193, -0.17112482419345912, 0.008935387289509192, 0.04787969701402818, -0.08314301371215897, -0.07410805036847287, -0.07516942857226122, 0.09113640006495173, -0.05209048460850116, 0.2063692089421182, 0.029091295089080656, -0.01019191440868415, 0.14823341534447182, 0.06402408796611983, 0.04792825015801805, -0.03312751200727872, 0.20852976213485935, 0.09632761025947718, -0.028276730043485694, -0.14497844300924162, 0.037207802475328886, -0.11526558038447438, -0.17424833029940892, -0.028145646660994936, 0.028147110259062233, 0.12824812336831645, 0.023053551560380605]], "bias1": [-0.04695478060913044, 0.013844838807693747, 0.0003322978415907764, -0.09116873562258157, 0.03962581230304217, 0.10061961372161074, 0.07464199591704375, 0.12438844473086534, 0.16860052099035316, 0.05479801100681081, 0.0, 0.03356654671726485, 0.05043355635098383, -0.06833580811135347, 0.20879145410240593, -0.0020518468972995467, -0.028692343468219632, -0.04309058619654702, -0.0032142178430739, 0.12116188200634585, -0.013035878286458686, -0.04933775881111682, 0.05321199785393531, 0.021400571512542682, 0.05294485528287775, -0.045324810258323, -0.002836054822191351, 0.23128756593959718, 0.02154583358407112, 0.0, 0.0, -0.03943890129579301], "weights2": [[0.8035838452206255, -1.2281032633913969, -0.026331937452000447, 0.12183188988294931, 0.8597741459673863, 0.11588996305298532, 0.8013883766744259], [-0.5135192769205298, 0.3522456551622043, 0.40421080872945525, -1.2511557379125025, 0.1695257084781432, -0.29923408533604673, -1.907518452616561], [0.9583163034794229, -0.3620050014274771, -0.8526189386567937, -0.3773887609672759, 0.13805168218813285, 1.5078443808071351, -0.16548417404839774], [0.4552793235738013, 1.3640948436370928, 0.5217108660814495, 1.0631602373009883, -0.4885762299851952, 0.7896437704207148, -0.06568182348800167], [1.070496844972567, -1.0075328513409054, -0.7858294395346678, 1.2673784966647137, -0.1992671161339921, -0.3609048662568423, 0.08155254203332767], [-0.7031798739049882, 1.3194262519977609, -1.269552120783977, -0.1537988907184591, 0.3371668061208817, -0.10922943622848087, -0.8022036018684976], [-0.8703886435440309, 0.42373834586002185, -1.0338133489812142, 0.6456775215533567, -1.5254426786899977, -0.5554574613757736, 0.03380754547688577], [-1.2870681058145887, 0.6225841405836123, -0.0699494223459487, -1.0416131880294703, -1.5437768615002503, -1.5317607736804704, 0.04075091430213529], [-1.1872186776519822, -1.3834985285282173, -0.26889888905164133, 2.2705103244189453, 0.25787873483121443, 0.8023697147644872, 0.19789631713681438], [0.7700316449001273, -1.3495965242755115, -0.4420110952677052, 0.25973141384034515, -0.024742778293862587, -0.16958239353117846, -0.6702458216521721], [-0.2583831027042033, -0.7741978238913314, -2.421833014859781, -1.1945084417055867, 0.47565293887443977, 1.5570779556716277, 1.813580171323687], [0.06991834494138613, 0.870746679618097, 0.8703338256989264, -0.6988739213342454, -1.7170692475288625, 0.04829313422787586, -1.774403870290676], [-0.3226460359981686, 0.6052852746290608, -1.4249973945600671, 0.03129397092465311, 1.236599990099955, 0.3678585992355962, 0.528045184310911], [0.9058223758365337, 1.7320588109385278, 0.1500981576089962, 1.2287292793337663, -0.06511838443612401, -0.5469587055925011, 0.3139046229237377], [-0.6847375408892868, -0.6289345027639998, -0.701289120289055, -2.308517784235306, 0.05057635551128302, -1.17753250979174, -0.12933662248098296], [1.4461062373001428, -0.5221217156622987, -0.5427388726503921, 1.363704702173394, 0.5445813514647935, 0.9826343243309673, -0.355806527835749], [0.7475098294513359, -0.6865111906363016, -0.6766624951287359, 0.5956437565697763, -0.5980878501764675, 0.7666441258835779, 2.391117914572165], [-1.6936974111218526, -0.7604342205604637, 1.1069466020160048, -0.14997611724421123, 1.153509114542343, -1.0102150443689126, 0.3299091254841564], [-0.15087056027045784, 0.13991402626220803, 0.3302571420588594, -1.2204079388891196, -1.0743643229176216, 1.398808915218548, 0.2928074404809672], [0.0837439486074704, -0.059362473902071174, 0.32638426403064213, -1.160395948087268, -1.0152634664874791, 1.3424108546422393, 0.1469320952855048], [0.8499774241662096, -0.6058562520151971, 1.3763439852339487, 0.34505840733173454, 0.4812777037284016, 0.5484623811228053, -0.7972211903561117], [-1.8774026330716291, -1.0863340952616491, 1.6116653150418832, 1.2920954501705502, -0.35854522145382184, -0.30432154455597066, 1.0323749438457102], [-0.17175423579020876, -1.3023661934022233, 1.2599548619204792, 0.47598524237879947, -2.519122659727308, -0.3154986996560274, 0.14248050073708585], [0.4479473451471416, 0.12842676699019445, -0.6739343657165151, -0.12656979349914926, 0.27320064894607865, -0.25616927211277496, -0.3916173211477556], [1.2297081290231695, -0.9619002278624754, -0.3756163614445217, -2.0365704648459673, 0.5249647709954062, 0.8490592685835539, 0.5348361371959197], [0.9163076481999954, 0.43941400194199903, 0.34042915692259884, 0.472614742563721, -0.2686867176158407, 1.1875367260659837, -0.3500643591109187], [-1.463229844518245, 0.8494156435667352, 1.8503118926075726, -0.960171768241705, -0.10226684571577929, -0.6855226392457904, -0.38058145217333916], [-0.01689537594658351, -1.2919801837211453, -0.3694327068752683, -1.4789847021276676, -0.609197256399067, -1.1267750342375242, -1.0873743014475103], [-1.7209698966104114, 1.2184558992235206, 0.5071478356289238, -1.9182096754519193, -0.5968581329235255, -0.6707883429628151, -0.6920729544263006], [-1.4468835125564838, 0.7543857213684552, -0.395863785507999, 0.4681489094895136, 0.5267557651664272, 1.375445311670887, -1.8148722777431434], [1.7386021114249555, 1.2688152738912304, 0.5730659923355066, 2.3835922292341163, 0.20497859792723128, 0.8214789160702182, -0.7384139812679597], [1.1328456353224652, 0.16661898311911907, -0.4534486182876456, 2.115130771280405, -0.3057823215385208, 0.007486604551337181, -0.19877282326776874]], "bias2": [-0.0941360986743468, -0.08049352777831383, -0.1369356136400468, -0.039252054137979636, -0.07417201703062058, 0.04995804238856145, -0.04744835467973896], "operations": ["rotate", "flip", "transpose", "translate", "recolor", "crop", "pad"]}