{"input_dim": 17, "hidden_dim": 32, "weights1": [[0.007639890982949287, 0.05429294496984222, 0.0551269831232161, 0.007368923250985188, -0.0037376861410470586, 0.11222884656966042, 0.23052677837933028, 0.15514800617113275, 0.07827770332719969, -0.0830201308186184, -0.06232744625373522, 0.04196086419464213, -0.1532730282062201, -0.028552728341021367, 0.04334728919701016, -0.07238193297842868, -0.06803770830931978, -0.004770050979013948, 0.0318647493496439, 0.21665290869049314, 0.012147500868772481, 0.14187666780764274, 0.007900186719605224, 0.04923281692901389, 0.20235641649707278, 0.02870850224585863, -0.07478796773764777, 0.0062080263334191345, -0.023596949047601415, 0.022019512347004944, -0.10096181835387359, -0.02819158672772209], [-0.03275056390384635, 0.21313710964124408, 0.01813184761823817, 0.055755607359674206, -0.03451295563928173, 0.14395064513295316, 0.20159552422048985, 0.16198995211665482, 0.10764919718739265, 0.2609208365327209, 0.13458754237823045, 0.2082531046362787, 0.07652193235816235, -0.04256719920305548, 0.2863172987409049, 0.19717529559420863, 0.1689203782318054, 0.08696205835705963, 0.032628355491099534, 0.05244464250909784, 0.008591055704632046, -0.024140988637526957, -0.09106432041559336, 0.07336251924325912, 0.1269624614579394, 0.11634808320949752, -0.1176334166506665, 0.12273966772285264, -0.012620490727426254, -0.11698019077728641, 0.1739367877130134, -0.06063114728858873], [0.01157450421686952, 0.12008154988345238, 0.15595236348140504, 0.1505796364226928, 0.09188682639108382, -0.07206071563988288, 0.13356907578383417, 0.08713504253111623, 0.34409244410204054, 0.04185875105090812, 0.18220113633283233, -0.0049585365222006884, -0.007780501402355611, 0.08135182592019537, 0.14908016294628532, 0.20099481795111362, 0.0074592728836163635, -0.10143927175587068, -0.040995302386527335, 0.07981395782579591, -0.11658802314036429, -0.010194124314431428, 0.11006808763009077, 0.15664758037880247, 0.017078671934052055, 0.21464970700632827, -0.02879884708098164, 0.34076090038410617, -0.009857474375693164, -0.07354832923422751, 0.024978537155866686, 0.09099819209071136], [0.05144329449222548, 0.4244895982718436, -0.1341219714076669, -0.2976432358232477, 0.14870505838701867, 0.4238226235228732, 0.05007529054882962, 0.2367592393884137, -0.09989145996034303, 0.09209331829411328, -0.07130680950592722, 0.2369583499909919, -0.4088194856673785, 0.015037573915213645, 0.4663437908790657, -0.006741083293769536, -0.04840041515441346, 0.2428437713521802, 0.04662880678815532, -0.5043190779071952, 0.22811998675393627, -0.15198903903575117, 0.13706994150435062, 0.33575550190591064, -0.12657066117049282, -0.1214148642297422, 0.009410137764342139, 0.5072118370934527, 0.11698304469720003, -0.07695146401767057, -0.14227417685154137, 0.023952910123609686], [-0.052990776665899145, -0.01303835777232375, -0.10913086961067688, 0.03662311580193997, 0.04549801193292978, 0.22848619490642053, 0.06819676372293136, 0.11218369239864448, 0.3185932070684418, 0.14741757949443182, -0.23653039062769743, 0.16276970172181443, 0.10396065631093147, 0.033671447143694494, 0.1631862961426317, 0.03140947220720097, 0.017202210436982418, -0.01627630694555035, -0.1946928858264351, 0.14732000139585238, -0.039981752436568464, 0.09463271740018898, 0.013108963657442152, 0.01450584662332773, 0.033696616949981203, -0.006089428958482328, -0.0009012127307726729, -0.07671747454463261, 0.05930500499888909, -0.010607225344775094, -0.11857198050052338, -0.24836399483110552], [0.04588679003815592, 0.04278223856380295, -0.058545554087884304, -0.0235308285193277, 0.21077699743906406, 0.0728639518487082, 0.10871228054404615, -0.05602800263986312, 0.2713985306566445, 0.11936483504259911, 0.10669348670051791, 0.04898356243832597, 0.14623910934758838, 0.027089075880307626, 0.22455467193713352, -0.017860792150916543, -0.1606102466787128, 0.12578482267526592, -0.19824426302295753, 0.06944584923668262, 0.009696606859811363, -0.10011174213568277, 0.11699836084167287, -0.006448449258250102, 0.0325731026295051, 0.0680612862243418, -0.0476674722814569, 0.24310593918370182, 0.07271060085466763, -0.047433298683443925, -0.19442649759855443, -0.13925237212603583], [0.09081569024449597, 0.20322804492417818, -0.05198432053903898, 0.15012211799607672, 0.01973708386990924, 0.16805490037875873, 0.27236054204354937, 0.29939692370493237, 0.3312051173395027, 0.06789798599035601, -0.16051493968851138, 0.19417564598581558, 0.2850038530929095, -0.07143918673266234, 0.5356271084011334, -0.13404510205180897, -0.0876527933326292, 0.20635611772672624, -0.006631439825486284, 0.5346345339227768, -0.0027952864816688226, 0.07542996932584109, 0.21634468854335692, 0.10428113730910371, 0.29025477947657397, -0.018472838090527157, -0.08835564980088113, 0.6371761317690328, 0.0618690529286164, -0.2016660690233245, -0.06486006079033346, 0.04767622214967779], [0.045456800281502056, 0.2240051036718665, 0.09845188068161445, -0.04804972494738259, -0.16184121269276247, -0.11926139697467406, -0.4184575319296565, -0.3561292528631002, -0.10117126855218549, 0.05025412582980636, -0.1256138069727733, -0.21138871137648785, -0.26287662365305936, -0.0963854230732174, -0.4193771767709058, -0.11390212383538684, 0.09437810118799898, 0.1518907626162308, 0.07009248824027996, -0.22772165750524037, 0.34021600722397344, 0.0025592839145509383, -0.154673490556827, 0.2719460949335789, -0.03877718665169708, -0.1394156544412339, 0.020191000196010993, -0.1906128863191031, 0.11586743323505533, -0.09216339244978113, 0.08047169314794977, 0.0884228854766661], [-0.06697000132685038, 0.18298689837450424, -0.0863828259171137, 0.22322589756248817, -0.10153325241462755, 0.11115251780426005, 0.0006985197296065584, 0.009029668498711844, 0.3356137140937313, 0.06373013556902632, -0.061048664606569936, 0.14504396813097065, -0.08467637193295989, -0.09191379344445177, 0.3678820721098769, 0.07781487108001679, -0.0923338897837677, -0.05007444651170672, -0.10189771640600613, 0.30214158420391424, 0.05573009332055102, -0.04472438162636912, -0.04064707061915348, 0.09433208266956242, 0.0955686550207738, 0.012149072558455898, -0.01468571015744647, 0.006191961375205188, -0.2020208726579032, 0.011566182709262591, -0.1070544409695766, -0.11922502584051589], [-0.07383751396301158, -0.0037499042581391343, -0.12493005072315227, -0.17626237977037273, 0.13048169797604348, 0.07456563038676033, 0.09874977123355401, 0.38727545033333477, 0.060553459570433975, -0.034495071314309636, -0.12609602800655342, 0.0038335812872253845, 0.24634904925086287, 0.035256323064472385, 0.3555379569449371, -0.375788475669325, 0.012362013338870137, 0.1300729988515252, -0.018923644584408622, -0.013883490640720322, 0.026450950774083656, 0.26160044582690334, 0.1331328500949361, -0.07141489564318444, 0.18561059025138577, -0.1098318972616721, 0.10097070411066912, 0.08002174208023205, 0.008474186323679874, -0.028998189606931388, -0.09199936028121969, 0.04082421567838661], [0.08708450805859823, 0.013718210206304557, -0.11212689101855344, -0.0043134052473780314, 0.054025658523701815, -0.008141048513971544, -0.10427499697604307, -0.09523994484449431, -0.17832774349576488, -0.08947387018971426, 0.029404214297498024, -0.07940463415021397, 0.005850690244924698, -0.023016560799905345, 0.006333622551137353, -0.03414134701668517, 0.0030088114565913837, -0.05985233996597312, 0.1006121446454226, -0.23336273551174114, 0.005143073448867015, -0.04014048018251202, 0.06443816516403983, 0.04636835863617875, -0.01451820615974948, -0.12658414699557918, -0.018641263549882534, -0.08199586167734273, 0.18714529624177878, 0.06221252216057821, -0.15290928749284466, 0.19616506383630297], [-0.01111570713074978, -0.12684911764881018, 0.14697142329934554, -0.005914937012499814, 0.03146365651923588, -0.02265027661265273, 0.053095199403182476, 0.044497999786325196, -0.21786536675151497, 0.24547095733957605, 0.09468615879956256, -0.018970257073566952, -0.07982623364936228, -0.09690124307582064, -0.025209185720132917, -0.0648016294189627, -0.07654342756268268, -0.03123771596542624, 0.03276693404198345, -0.03472315027198, 0.11124178209135709, 0.029403018635302078, -0.09409048898983453, -0.035710575330007495, 0.16042135073715216, 0.07189405658150542, 0.02266988564379923, 0.12165463139050971, -0.20450311438293547, -0.14791378337711042, -0.08665073572768982, 0.08199989993352248], [-0.11701059846219855, 0.008688359840277703, -0.09801085381937541, -0.06268913418240839, -0.23206554378099126, 0.003973098366697659, 0.011807493354395163, -0.003988250878618065, -0.18895962086335547, -0.20827418567358383, 0.05312512156361892, 0.16954889113783553, 0.07892906084592513, -0.10954720366375337, -0.09675918656558306, 0.04439913996466691, -0.03730001189185028, 0.09152245256085836, -0.14388738246967092, 0.223021094920701, -0.06818350420922406, 0.1579283115901989, -0.0798809251714459, 0.06070038857525295, -0.1599915648577916, 0.01584229071622113, 0.005334375570673462, -0.035813561817301366, 0.10980073714504386, -0.2967183709983944, -0.07600587900644339, 0.0029785412883956584], [-0.026249607630243085, 0.15269207561442588, 0.10153269959744687, -0.031130199720302558, -0.17172247192153717, 0.15971387474981144, 0.031393509344887126, -0.04991897284292012, 0.10511182363951514, -0.048628263862983294, -0.11371197204183754, 0.02344491211566726, 0.052614382660145356, -0.09392727421904418, 0.19001871084626434, -0.08983886556989489, 0.08059926539849108, 0.08171830696942284, -0.026046954621114733, 0.04757993315138425, -0.0878838136982206, 0.08248728229104842, -0.04576458881472664, -0.03088235801297822, 0.04955983052405692, 0.09371009305930521, 0.07722987241531161, 0.20508296735879075, 0.13800895721184656, 0.12835066324204059, -0.05398639371765149, 0.014161444517869591], [0.1981193413191209, 0.055588903489305785, 0.03016352331732358, 0.007532189443046816, 0.056180066036766736, 0.07539789348184728, -0.33932378205137514, -0.3783600208399589, -0.059648077162795604, 0.13215772965312583, -0.008452148800245243, -0.2768672168987769, -0.10693482088546924, -0.1938168107839183, -0.06072386964902315, 0.12436531386663352, 0.07637526200552838, 0.2772900459095746, -0.09501711304701486, -0.24058137236642196, 0.042550137512902854, -0.09075963400016726, -0.537365813189729, -0.009145325293467827, 0.08082009045812183, 0.12877991097452726, 0.016074305913174443, 0.06164275179075978, -0.13901467086578503, -0.02526885812478079, -0.38994217300543393, 0.018630925835218793], [-0.02046681645729904, 0.3289195388322396, -0.04548928624466188, 0.23830881811305443, -0.17350737837078112, 0.033406591551210965, -0.007406221904097847, -0.49950787445580286, 0.7676917032308449, 0.08901953987194844, -0.07905448096678758, 0.31577486724470005, 0.18232862282805068, -0.06762320559749609, -0.15567778560216805, -0.1759463258319884, -0.021071093227529144, -0.2881236630022682, -0.13384325194768548, 0.828476544529761, 0.16088675880706432, -0.1367294545533545, -0.16413718330665136, -0.144355720182851, 0.47221428843211644, 0.36275690731670357, -0.0009858938489975368, -0.08220988378795983, 0.06607043675536435, -0.07084652365979932, -0.02904000800729554, 0.01271186991213807], [-0.034153835641825336, -0.5282995794626167, 0.10662620400317438, -0.17320354749871372, 0.3450458594296927, -0.09499924946335223, 0.012965411418486315, 0.3281239405817456, 0.010986624947204687, -0.2874745221410932, -0.07410805036847287, -0.4583751722213393, 0.33573694882326155, -0.05133551004583899, 0.4286100314762216, 0.029345008564350187, -0.010203660483460544, 0.34125904616627795, 0.06511181800521018, 0.014593941910970808, -0.09193364274923214, 0.6457560968116393, 0.2642190521601824, -0.13591563685343847, 0.029888353043700085, -0.052191654868222595, -0.11781875926892363, -0.428627457836894, -0.09530661253944919, 0.028147110259062233, 0.12824812336831645, 0.01221772301571834]], "bias1": [-0.01786738823234045, 0.2082884512353126, -0.023671813971085566, -0.01420304342819355, 0.14800200827729948, 0.2266206803628949, 0.3196193097193976, 0.240763195551802, 0.39755863716990786, 0.1292397708517594, 0.0, 0.12124070558403062, 0.20438991724140712, -0.02380151199254651, 0.5192931138470045, -0.004780489775874732, -0.040471477858539086, 0.06856102245447342, -0.0202045132321997, 0.30359818524318627, 0.07592398773404725, 0.017401527653410475, 0.23589527132666738, 0.04769935262629431, 0.2909759154424498, 0.03764697295038868, -0.001593973368710736, 0.33057245786413897, 0.06960355890103787, 0.0, 0.0, -0.020127750562722063], "weights2": [[0.8088343497430627, -1.2290325204362418, -0.029424390675117228, 0.1229983417711647, 0.8832300085729485, 0.1146482107653342, 0.7996276445211702], [-0.5509419940023279, 0.34426538994669537, 0.3770750146126864, -1.2701298736217554, 0.22168696529522516, -0.20646047690148506, -2.0870698988731022], [0.9582604554934787, -0.36209003030987724, -0.8528347032901439, -0.3775033617218719, 0.13789524309267204, 1.5074760201944302, -0.1643435233954758], [0.4097620422599001, 1.3396352861636573, 0.4790956743763995, 1.0565357979942933, -0.5195669951081396, 0.9604102672962572, -0.12359180108106486], [1.0601126693434115, -1.0342796711877682, -0.8500846812743056, 1.251550386885764, -0.1968184131767907, -0.45485334375708325, 0.2230226126639956], [-0.7436012589162346, 1.2923614250712032, -1.3490995261766723, -0.1897238518300183, 0.3631742271312922, -0.17441971793250297, -0.790960764876915], [-0.9389482626904598, 0.3633906336078878, -1.1618931305579254, 0.6097213213281021, -1.5896324082213769, -0.5396415826420674, 0.02783678132315771], [-1.3321249615956339, 0.5743580091225716, -0.19204704496980954, -1.083407304455556, -1.6110129289434072, -1.6775776650472114, 0.19030739315494624], [-1.3717744835801302, -1.4990508879229643, -0.5015457916765238, 2.1915179821297994, 0.1957992632165482, 1.0581702091329832, 0.20246035602291987], [0.7476630435657102, -1.3779253131089189, -0.4898170224706492, 0.24443609869626426, 0.014961625333186322, -0.11011520245979117, -0.756262559153734], [-0.2583831027042033, -0.7741978238913314, -2.421833014859781, -1.1945084417055867, 0.47565293887443977, 1.5570779556716277, 1.813580171323687], [0.01057336614055882, 0.8333898561731837, 0.8054038128092872, -0.7158821579784413, -1.7643969949544125, 0.13840216888017592, -1.918848078618548], [-0.37720254074999887, 0.5705548912345343, -1.5162459448318957, 0.0045831624585330865, 1.1595631701580595, 0.4501389279055637, 0.7182833400296984], [0.906540500162348, 1.7327558964617578, 0.15110423708144013, 1.2293891763151137, -0.06436917000206713, -0.5463139053365561, 0.31455802281356404], [-0.8009207890808514, -0.7070120193511056, -0.9206072792057659, -2.393873153119086, 0.005155243822908614, -1.2499178777465765, 0.048961941581037026], [1.445033449497323, -0.5220189924758531, -0.5435114141614702, 1.3636411537624376, 0.5454673351589374, 0.9793791438974658, -0.35646379732175526], [0.7474783410405481, -0.6864783588698404, -0.6765636903893592, 0.5957691475637928, -0.5968430959163911, 0.7666377242926034, 2.391232286212499], [-1.6767703927741175, -0.744730625773807, 1.097481595063255, -0.16149403029584175, 1.2073896940546318, -1.1206481982617373, 0.4551835035387931], [-0.14730975882229647, 0.13963893094782032, 0.32956640282544647, -1.2206023121756904, -1.0750483741632293, 1.3980242833335461, 0.294039964243088], [-0.09230662138448677, -0.16472227678452184, 0.12053780494685294, -1.224601468406582, -1.1642084324723154, 1.662014991003733, 0.21747590758320628], [0.8624377325257951, -0.5983689224129202, 1.3864760752596987, 0.3433505398111404, 0.5094798584208998, 0.5472729383811177, -0.8177851774444015], [-1.876118902933354, -1.0786277313420056, 1.5902530212324486, 1.2806471577664649, -0.3862121793533809, -0.3735129776999254, 1.265150438036988], [-0.19191517003443898, -1.3248791435667346, 1.1940795648720284, 0.45523887521826756, -2.5952667017394497, -0.4141604749693028, 0.2658203226723966], [0.4507798773877808, 0.14880550316529476, -0.6560190656515191, -0.13789207541349452, 0.33895327989926555, -0.3189748617815387, -0.4624336609398779], [1.1569789875229435, -1.017111691061829, -0.49530638025806095, -2.0726568630805553, 0.49392125316685065, 1.0016576528889911, 0.5452045933421218], [0.8906635039594871, 0.4222977813443763, 0.31412168355964143, 0.468071518900076, -0.2836461707383651, 1.2724917744360953, -0.3855557382200381], [-1.46264051438501, 0.8495803983642305, 1.8504249790953367, -0.9601629737127517, -0.10195159638962588, -0.6857371396719266, -0.38106343542037063], [-0.10460281561177845, -1.3640572143378296, -0.5334368777517902, -1.5503291507477133, -0.5683064531957317, -1.1381724774407604, -1.1822050728357214], [-1.7114775634275083, 1.236745586790437, 0.5245070880589064, -1.9218882592517996, -0.578737152267253, -0.674469908967006, -0.7074169789150911], [-1.4468835125564838, 0.7543857213684552, -0.395863785507999, 0.4681489094895136, 0.5267557651664272, 1.375445311670887, -1.8148722777431434], [1.7386021114249555, 1.2688152738912304, 0.5730659923355066, 2.3835922292341163, 0.20497859792723128, 0.8214789160702182, -0.7384139812679597], [1.1423217883269035, 0.17053300621307463, -0.4493028653405623, 2.1152240979443198, -0.2997606505753217, 0.005678166157674431, -0.1963734164174733]], "bias2": [-0.18488207806356707, -0.1522199820679255, -0.3007071712622262, -0.09475980423070529, -0.09163177436368579, 0.11225942373104718, 0.04912847189167819], "operations": ["rotate", "flip", "transpose", "translate", "recolor", "crop", "pad"]}