{"input_dim": 17, "hidden_dim": 32, "weights1": [[0.0076228040849473456, 0.05425814509882223, 0.055127163795683436, 0.007362412997740599, -0.003778197187197579, 0.11225154760129075, 0.2303556482778508, 0.15510705994157728, 0.07832601243169147, -0.08301065328477789, -0.06232744625373522, 0.04196732100621771, -0.15328559705092948, -0.02856484742649468, 0.043363387387422736, -0.07237475169902868, -0.068073561929067, -0.0047652416257206965, 0.03185994403909191, 0.21665635844258269, 0.012132184533184055, 0.14189715145392992, 0.007911622592624706, 0.04924769784287684, 0.20231887513710725, 0.028726169019731903, -0.0747884789093349, 0.006285715339723087, -0.023562397489543172, 0.022019512347004944, -0.10096181835387359, -0.02820354524602631], [-0.03278678528689392, 0.21306570399628574, 0.018131618268561495, 0.055763712030854076, -0.03451645185465271, 0.14398778912605273, 0.20139042913650884, 0.16201020872092223, 0.10769513870377245, 0.2609202299626049, 0.13458754237823045, 0.20824863087397444, 0.07648994761370265, -0.04254075418067211, 0.2862724361740838, 0.19720128918151913, 0.1689442134248571, 0.08695022523778959, 0.032635144981137315, 0.05244779174688564, 0.00858019966844908, -0.02410741531609345, -0.09111346876376519, 0.07338056632417535, 0.12693854584888617, 0.11633352316342367, -0.1176329638364394, 0.12277279260819636, -0.012419989843504684, -0.11698019077728641, 0.1739367877130134, -0.06063114516529687], [0.011551916014491017, 0.11995784845567152, 0.15595074455832922, 0.1505885566389379, 0.09189159351603463, -0.07201585358070187, 0.13335315752477006, 0.08715821485870245, 0.34415217189184094, 0.0418504871738346, 0.18220113633283233, -0.004982737337808198, -0.007805693245550174, 0.0813823594989727, 0.1490505819840717, 0.20102075388982715, 0.007486370856412024, -0.10148675705525177, -0.04098860295664342, 0.07980643747474282, -0.11659211827369552, -0.010159074520077324, 0.10999306113507991, 0.15666563916537904, 0.017043385042898703, 0.21465734823447372, -0.028798853999790243, 0.3407964096560452, -0.009643158053815616, -0.07354832923422751, 0.024978537155866686, 0.0909987666676347], [0.051412901905586145, 0.42411090896814574, -0.1341219714076669, -0.29765190185402324, 0.1488286021436612, 0.42382969624776895, 0.04993015576655278, 0.23665995922993543, -0.09976432746039185, 0.09210820991189723, -0.07130680950592722, 0.2369433472840078, -0.4087893055729212, 0.0151013198191203, 0.4662944646602405, -0.006807647032801108, -0.048375650501427864, 0.24286519335590664, 0.04665043703739348, -0.5042711475559898, 0.2281018600945788, -0.1520966658028557, 0.13705301654285545, 0.33576613300405883, -0.12655287045561445, -0.1215301987418052, 0.009417618234162768, 0.5073938204350443, 0.11776367478686056, -0.07695146401767057, -0.14227417685154137, 0.023952164109117925], [-0.05296330729969306, -0.013120882692291762, -0.1091316449251418, 0.03665012556638885, 0.04551305128565225, 0.22848648987815542, 0.06800759379953995, 0.11211815123475075, 0.3187494684375759, 0.1474369043438775, -0.23653039062769743, 0.16270289872299523, 0.10399553426186983, 0.033732723719717986, 0.16314082671359273, 0.031443095167295224, 0.017199346123636713, -0.016241280788043214, -0.19469349097277194, 0.14735055070846506, -0.040041249308319926, 0.09464736980642778, 0.013092359078795633, 0.014524210310125154, 0.03373835062083482, -0.0060151183465259606, -0.0009031177580783602, -0.0767049038916252, 0.05935021408622021, -0.010607225344775094, -0.11857198050052338, -0.2483702104009418], [0.04590037965241467, 0.04270190339704946, -0.05854663138719215, -0.023501803953155865, 0.210815830703492, 0.07286893308035614, 0.10850017298024434, -0.056078405443052926, 0.27150810023178307, 0.11938162321749923, 0.10669348670051791, 0.0488586837639296, 0.14627590655386316, 0.027122219366081012, 0.22454337831860013, -0.01784290480290125, -0.1606041400138635, 0.12580508265223417, -0.19824567883536154, 0.06942659353967998, 0.00966705885771973, -0.10009211193636205, 0.11695821847414341, -0.006434369967001124, 0.03258658720998953, 0.06809212037478145, -0.047667120469585184, 0.24311692355130163, 0.07280588376734588, -0.047433298683443925, -0.19442649759855443, -0.139247270380783], [0.09076599390814659, 0.2030859701186778, -0.05198692653993747, 0.15011898482919256, 0.019723721874241727, 0.16807422925741927, 0.27196352578397515, 0.29943188682837146, 0.3313624648576848, 0.06788691271624389, -0.16051493968851138, 0.1941536406052451, 0.284983137571429, -0.0713977116795033, 0.5356238581387135, -0.13402812699846317, -0.0876653326496843, 0.20634869805150013, -0.006629962465123032, 0.534626247564085, -0.0028547095946237703, 0.07548913709275373, 0.2163739748149729, 0.1043089086398899, 0.29017024750430226, -0.018453373662268447, -0.0883552365694546, 0.6373642680899284, 0.06207602960984155, -0.2016660690233245, -0.06486006079033346, 0.04766882127104176], [0.04558090591331053, 0.22388108829410713, 0.09844860654002449, -0.04814117271855497, -0.16181021130457213, -0.11918637695996284, -0.4182431431498203, -0.3563515141328932, -0.10105699054462762, 0.050430820703592234, -0.1256138069727733, -0.21145800789493716, -0.2628027547416833, -0.0963854230732174, -0.4194450990313224, -0.11390809685968575, 0.09436823382511418, 0.15194971839811114, 0.07010178452978684, -0.22777348543924483, 0.3399678470437778, 0.0024886385809989803, -0.15472108643722507, 0.2719792133088804, -0.03866188287693175, -0.13945294023344681, 0.020191000196010993, -0.19046707768616353, 0.11564809179621484, -0.09216339244978113, 0.08047169314794977, 0.08837871714031598], [-0.06698243734245977, 0.1828067463778084, -0.0863823391602897, 0.22318948202302066, -0.10160830519462141, 0.11116244186235955, 0.0004001718830830009, 0.009565774808725218, 0.33589261416091554, 0.06377700448038874, -0.061048664606569936, 0.14526205352877256, -0.08467766161341633, -0.09205082108119977, 0.3678430274195208, 0.0781353596014573, -0.09236851565438435, -0.04992700839665273, -0.10189856510576102, 0.30185084767760456, 0.05556091518114778, -0.04501394300118261, -0.04073924264255292, 0.09433241912761649, 0.0958417693247858, 0.01214618562329841, -0.01469224730678113, 0.005901546820787616, -0.20190366773108745, 0.011566182709262591, -0.1070544409695766, -0.1192200286367214], [-0.07384876226054617, -0.0038271200747796376, -0.12492808443731007, -0.17610644905268608, 0.13047747186593267, 0.07462139913470085, 0.09841496946977216, 0.38736135355281964, 0.06063365391877386, -0.034481745012809914, -0.12609602800655342, 0.003585554232957064, 0.24634625967029097, 0.035115334623558536, 0.35563317765698305, -0.3757437607213662, 0.01233994706569009, 0.13016102192823537, -0.018928574879962783, -0.01396611165782468, 0.02644806287022009, 0.26141608256902343, 0.13307591124510518, -0.0714393410709601, 0.18555086366052415, -0.10978956536528464, 0.1009771155106124, 0.07994251851048997, 0.008534013224803507, -0.028998189606931388, -0.09199936028121969, 0.04085207500470913], [0.08716499879204101, 0.013686503223270516, -0.11213472967622906, -0.004329742036762002, 0.05401809435641462, -0.008062191067515012, -0.10413475851646467, -0.09535821644680947, -0.17820480122396162, -0.0894164700867916, 0.029404214297498024, -0.07955348515882357, 0.0059050841005103445, -0.023020186973668533, 0.006279701510313859, -0.034143474690595324, 0.0029884760825186823, -0.05976184385348352, 0.10059271699777064, -0.2334413229798586, 0.004960560867000918, -0.040167447123411935, 0.06432102025412269, 0.04639618515082612, -0.014417930740534046, -0.12662724821022814, -0.01864310618710779, -0.08192727591260071, 0.18712716467007734, 0.06221252216057821, -0.15290928749284466, 0.19618995381779175], [-0.011075546839169477, -0.1268565318985666, 0.14697048783027805, -0.0058981171742933, 0.031488502254679716, -0.02265629820863312, 0.05311131854304449, 0.04449619394554264, -0.21786967159385287, 0.24547012938737223, 0.09468615879956256, -0.018954639695294182, -0.07982770020260815, -0.09690124307582064, -0.02523466915177919, -0.0648016294189627, -0.07654670139264583, -0.031236001060628925, 0.03277496272858857, -0.03471658082804538, 0.1112414853901272, 0.02937120102890424, -0.09406488561604198, -0.03571589598036293, 0.16041317438889072, 0.07189405658150542, 0.02266988564379923, 0.12166001803963705, -0.20449102433586663, -0.14791378337711042, -0.08665073572768982, 0.08199683461497566], [-0.11707987293378504, 0.008620590810495689, -0.09801178928844317, -0.06269197295474273, -0.2320819154339856, 0.003979780325052601, 0.011922164039322605, -0.004064616225788066, -0.18881340385618692, -0.20810738765101383, 0.05312512156361892, 0.1692636777197274, 0.07895697135543399, -0.10954720366375337, -0.096603681448464, 0.04439913996466691, -0.03730553344788545, 0.09148593111244603, -0.14388481195984498, 0.2230070789058298, -0.06833872425302899, 0.15785788017774258, -0.07989022480296863, 0.06074799097127561, -0.15984821456446455, 0.01584229071622113, 0.005334375570673462, -0.03567579362082422, 0.10959244197901527, -0.2967183709983944, -0.07600587900644339, 0.002971268113721132], [-0.026236015457186547, 0.15260687058978248, 0.10153269959744687, -0.031185725242248375, -0.17172237766086848, 0.15975010385042254, 0.03147169924310106, -0.04996854152552951, 0.10518208319290019, -0.048584222758867854, -0.11371197204183754, 0.02332499042690062, 0.05265288731837124, -0.09388288865419915, 0.18997960004748357, -0.08983887687578788, 0.08060056533243591, 0.08178949729231728, -0.026047708498390557, 0.0475412875767183, -0.08796363853341561, 0.08246963385939525, -0.04584218805354932, -0.030869153448963137, 0.04962487748627296, 0.09369511514438295, 0.07722887344266742, 0.20510754018434907, 0.13803710519921242, 0.12835066324204059, -0.05398639371765149, 0.014177442677339084], [0.19831334770538267, 0.055573332975141054, 0.03016352331732358, 0.007508457677652275, 0.056180601649941465, 0.07536362024514011, -0.33922774684335105, -0.3783833389028774, -0.05971350748199969, 0.13215634433948983, -0.008452148800245243, -0.2766704395108965, -0.10683746791771376, -0.1938168107839183, -0.06091436517969388, 0.12435437700207733, 0.07640588229484199, 0.27739237856774185, -0.09503640256696741, -0.24062282337872629, 0.04252537555789469, -0.0907016866329867, -0.5373525667699297, -0.009172926416813294, 0.08080851880468001, 0.12876373658409215, 0.016074305913174443, 0.06161749656012105, -0.13917576107166793, -0.02526885812478079, -0.38994217300543393, 0.01861490714811553], [-0.02049658332281384, 0.32883176738229913, -0.04548502121962943, 0.23831724513631114, -0.1736384246246094, 0.03342672031683643, -0.007562862266734481, -0.499350608106004, 0.7677128224855014, 0.08904200891376536, -0.07905448096678758, 0.3157482694431312, 0.18229969089280898, -0.06762320559749609, -0.15559746691483822, -0.17586278703961117, -0.021076773163800265, -0.28815333346135863, -0.13384325194768548, 0.8284046498496593, 0.16071294400426167, -0.13659443863361356, -0.1641646437419503, -0.14431908298836718, 0.4721938031924952, 0.36298891996248134, -0.0009858938489975368, -0.08217435707534558, 0.06595672133497577, -0.07084652365979932, -0.02904000800729554, 0.012717649673590943], [-0.03413743815401726, -0.5280031807728303, 0.10662453347124567, -0.17321233622565727, 0.3450467218672626, -0.09501798781530804, 0.012871703259747867, 0.3281089017785815, 0.01101100039784284, -0.28752680165744776, -0.07410805036847287, -0.4583841093839987, 0.3357267310057318, -0.051357780896586144, 0.42857221812918, 0.029347392596758094, -0.010226249079548645, 0.3412633278523154, 0.0650913055566005, 0.014624910877193727, -0.09180196380788566, 0.6458033131630408, 0.2642937813349578, -0.1359687766761298, 0.029824628161570357, -0.05227541017326985, -0.11782582650731782, -0.4286792049510083, -0.09581887423891257, 0.028147110259062233, 0.12824812336831645, 0.012205711749477195]], "bias1": [-0.01791708456869029, 0.20814637642981218, -0.023674419971983933, -0.014206176595077892, 0.1479886462816328, 0.22664000924155536, 0.31922229345982384, 0.24079815867524085, 0.39771598468809016, 0.12922869757764732, 0.0, 0.12121870020345994, 0.20436920171992795, -0.023760036939386945, 0.5192898635845836, -0.0047635147225285265, -0.04048401717559396, 0.06855360277924792, -0.020203035871836566, 0.3035898988844969, 0.07586456462109194, 0.017460695420323167, 0.23592455759828335, 0.04772712395708039, 0.2908913834701779, 0.03766643737864779, -0.0015935601372842815, 0.33076059418503495, 0.06981053558226319, 0.0, 0.0, -0.02013515144135793], "weights2": [[0.8088532211440113, -1.2290265646773042, -0.029411799290378803, 0.1229964230648294, 0.883287130860787, 0.11463231574169336, 0.7996262584224316], [-0.5508520874054543, 0.3442474184105523, 0.37706843477070495, -1.2700865413839584, 0.22165426409094596, -0.20650016200157129, -2.086878004488972], [0.9582605109179089, -0.36208977783478624, -0.852834575117703, -0.37750333977476996, 0.1378952597136778, 1.5074760661613926, -0.1643436208705219], [0.40974003703570083, 1.3396123112056981, 0.4790483135160479, 1.0565326599168237, -0.5195693100083439, 0.9604615363361725, -0.12358164311229554], [1.0601176642007486, -1.034281211713917, -0.8501081931235926, 1.251546560882306, -0.19679891101735025, -0.4549296145090545, 0.22303342345186083], [-0.7435881424423839, 1.2923151689869852, -1.3492003088951332, -0.18970896526281714, 0.36314140888786683, -0.1743878938263427, -0.7909242572321193], [-0.9386535741688047, 0.3635807895957359, -1.1615474227728741, 0.6098686605321083, -1.5895707294966719, -0.5397663957392774, 0.02781541626736529], [-1.332242446511207, 0.5742796763488132, -0.19220857242178543, -1.083407069149471, -1.6111372292870838, -1.6774003491212461, 0.19032217363247347], [-1.3717607498933169, -1.4990941156541717, -0.501751169187235, 2.191543988567922, 0.1957470149543902, 1.0582290966933756, 0.20253887985673838], [0.7477180140548456, -1.3778962658105591, -0.48978873064099326, 0.24446371629992394, 0.014962630042296603, -0.11008066782638017, -0.7562606727648155], [-0.2583831027042033, -0.7741978238913314, -2.421833014859781, -1.1945084417055867, 0.47565293887443977, 1.5570779556716277, 1.813580171323687], [0.010547406545582142, 0.8333679033224666, 0.8053585249608838, -0.7158614100915829, -1.7643993934464557, 0.138480515838953, -1.9188346039415616], [-0.3771734478275752, 0.570589496656423, -1.5162055935280736, 0.004603508010907803, 1.1595707967970401, 0.45007705121175484, 0.7183154188943573], [0.9065413542531501, 1.7327567842253897, 0.15110643003188745, 1.2293909903873304, -0.064368057878724, -0.54631265793605, 0.3145601596947372], [-0.800908032399311, -0.7071219915791193, -0.9207912962855864, -2.3938123198470587, 0.005032218194291717, -1.2498077245494223, 0.04902133817334828], [1.4450182074582978, -0.5220258787047078, -0.5435176174577114, 1.3636391472045086, 0.545473326968792, 0.9793938212715831, -0.35646903902642557], [0.7474805068870316, -0.6864766552450803, -0.6765609084171045, 0.595770781086367, -0.5968507561847879, 0.7666393554891457, 2.391234595358976], [-1.6767477385335556, -0.7447596078241143, 1.0974600963911638, -0.1614891141454755, 1.2074245537811508, -1.1206909145964647, 0.4552021356316847], [-0.14731131601399225, 0.13963944263938013, 0.32956705694911653, -1.220603153234752, -1.075048911827395, 1.398023352405399, 0.294038543829526], [-0.09224837465697727, -0.1647185745507425, 0.12045219362463445, -1.224566816835671, -1.1642158177668451, 1.661954456864771, 0.21753359968227387], [0.8624400904055487, -0.5984011159957667, 1.3864431503174983, 0.34335935262516043, 0.5094281643528645, 0.5472403192924996, -0.8177128345581678], [-1.8760953919395884, -1.078641874589643, 1.5902537032765252, 1.2806666448572763, -0.3862013867431203, -0.3734775935964174, 1.2651524881840304], [-0.19189333397830424, -1.3248734948969116, 1.194068415879943, 0.4552559127629864, -2.5952765351601554, -0.4141484808159522, 0.26586831423839646], [0.45078045329739724, 0.14874245163122807, -0.6561158773441971, -0.13788322653000065, 0.33891298171279044, -0.31891967633781587, -0.46245015735260014], [1.1570411949121608, -1.017074783922645, -0.4952612894053398, -2.072609314495819, 0.493922322006197, 1.0016654417208284, 0.5451926494417025], [0.8906310412881012, 0.4222826169206438, 0.31408801654525387, 0.4680621313308107, -0.28367456938147284, 1.2725983834425691, -0.38559515229574753], [-1.4626460838539974, 0.8495772476659057, 1.850422700077015, -0.9601628596297712, -0.10195673654818699, -0.6857370392270181, -0.3810630482222992], [-0.10456660401639634, -1.3641507081551443, -0.5336780034603211, -1.5503036102851406, -0.5684244675064194, -1.1381694210642257, -1.182199958514681], [-1.7114854649156626, 1.2367015394878091, 0.5244200725857523, -1.921918176773274, -0.5786460339293157, -0.6745193373590223, -0.7076454596891899], [-1.4468835125564838, 0.7543857213684552, -0.395863785507999, 0.4681489094895136, 0.5267557651664272, 1.375445311670887, -1.8148722777431434], [1.7386021114249555, 1.2688152738912304, 0.5730659923355066, 2.3835922292341163, 0.20497859792723128, 0.8214789160702182, -0.7384139812679597], [1.142326458535571, 0.17053700111339914, -0.4492991402210821, 2.115223059211306, -0.29976269529789773, 0.00567322625661981, -0.1963712851797963]], "bias2": [-0.18487477408824235, -0.15226577322886015, -0.3008496172657459, -0.09471943551472976, -0.0917761720646236, 0.11225447264052546, 0.04913665406350001], "operations": ["rotate", "flip", "transpose", "translate", "recolor", "crop", "pad"]}