{"input_dim": 17, "hidden_dim": 32, "weights1": [[-0.004742347687874081, 0.022388634927991247, 0.056216153085027, 0.006204458332616954, -0.023091575273705395, 0.09818570187376524, 0.20234170680652283, 0.1435347294919524, 0.05618448732175616, -0.0976769911613876, -0.06232744625373522, 0.01682379209659957, -0.18354489779982122, -0.04245844800589911, -0.0037849369808751437, -0.07397808243701218, -0.06848906007020582, -0.02042259653480111, 0.03226670026150989, 0.19864733571030713, -0.014436628621741714, 0.13024784154399702, -0.024405024714461532, 0.043820805135469675, 0.1615220939480545, -0.0049684546036383205, -0.07523653085894477, 0.005301962457445149, -0.03385866725590181, 0.022019512347004944, -0.10096181835387359, -0.036392033308296], [-0.03608382560533562, 0.14107495175885892, 0.019792474419168992, 0.0488676232576668, -0.04567997298909975, 0.094106599078934, 0.16072764207609552, 0.17383321448279493, 0.05039655084200694, 0.21739324299752305, 0.13458754237823045, 0.17559351944699503, 0.06354157016634542, -0.06165484762519298, 0.2511776554536133, 0.19739576311730625, 0.16530881417914609, 0.1028027126497125, 0.03204856802823701, 0.03148533263220206, -0.003147205109216838, 0.009591387909025518, -0.09008468017458482, 0.05554404712195872, 0.10636614506277643, 0.05120527521662704, -0.11831500834372635, 0.07718118929757896, -0.029932859007335375, -0.11698019077728641, 0.1739367877130134, -0.06483799246879339], [0.011661636632949767, 0.05787375759266629, 0.1576251258885163, 0.1461680997474444, 0.08332799262091227, -0.11133699059833499, 0.09265150431623888, 0.09412269868908286, 0.2860707373057694, 0.003943013580873389, 0.18220113633283233, -0.033171307489218795, -0.02394136548803253, 0.062049155839646285, 0.11382339585590716, 0.20130120720005082, 0.0039916796155422644, -0.0938635043336523, -0.04154203394692072, 0.0550542000918882, -0.130702816477404, 0.007388963463971954, 0.10046735288646774, 0.14412926990083877, -0.005699553469885628, 0.1496165031051125, -0.02926293089538546, 0.30221384232110443, -0.02900512501542829, -0.07354832923422751, 0.024978537155866686, 0.08688928763922055], [-0.020123411905597854, 0.20947072489249033, -0.1341219714076669, -0.2700280171309034, 0.13095465495124856, 0.3560673568676257, 0.12449641165062687, 0.2469366594639692, 0.06682117850752585, 0.039435219927962305, -0.07130680950592722, 0.1610859092582336, -0.29419062113735095, -0.0283474952831846, 0.4329349380783515, -0.008359907599665763, -0.050751404719660935, 0.16316161996212417, 0.04663067740642395, -0.3281946634946308, 0.14035912025908281, -0.053152860818549794, 0.11829696779912634, 0.26086534475171874, -0.05141360223237169, 0.03409349052038265, 0.008432551997065276, 0.42037181315600247, 0.03601177075232775, -0.07695146401767057, -0.14227417685154137, -0.008589652149718715], [-0.07535637616640757, -0.04717552218735768, -0.10753524285146922, 0.03692095415103439, 0.04986733256651904, 0.2127965305792105, 0.061621559351284626, 0.11888749679749427, 0.3063916509360187, 0.14960643078951152, -0.23653039062769743, 0.1596682829671896, 0.08830519954773347, 0.016583347360487957, 0.13709649065361748, 0.03598264590638487, 0.016722383697565398, -0.037659317661463854, -0.19474637587082752, 0.1382034004767156, -0.0808905533822901, 0.08585603855731036, 0.0048101861274651775, 0.011814026128464236, 0.0036550540447505, -0.0667465435299224, -0.0012899972246011423, -0.0576901175046436, 0.04051448339928114, -0.010607225344775094, -0.11857198050052338, -0.2540396504237929], [0.03309553456024647, 0.015681843617864434, -0.05720109401679038, -0.029623956375663053, 0.20574131929251022, 0.06450857268321328, 0.08468820065283807, -0.07601840507137794, 0.2815131077287704, 0.1226648700095577, 0.10669348670051791, 0.028180365064780537, 0.13411813715935297, 0.009620607630534232, 0.1964719902347352, -0.017189140360350314, -0.1618393914268751, 0.1160307281123983, -0.19838463358484135, 0.0645445964006675, -0.022459366831296314, -0.10908910634843022, 0.10049179097618322, -0.009791928460117984, 0.013040714669930387, 0.035154844446689766, -0.04811455658189927, 0.25680796115785703, 0.04990913117796991, -0.047433298683443925, -0.19442649759855443, -0.14642557512789006], [0.05671901777355826, 0.10818277354351263, -0.04685701643650533, 0.14836896811137723, -0.03716693947612779, 0.13119735354043457, 0.17693774178608287, 0.2392201287084156, 0.2985034232723937, 0.029104951078402455, -0.16051493968851138, 0.12200927783688106, 0.21805145994742076, -0.11597348285146966, 0.39829257332516094, -0.13397022626981514, -0.09017118060891832, 0.17087781063007734, -0.006830658863573119, 0.499765795746651, -0.08098607624729086, 0.04495174426690929, 0.11222438244553787, 0.08528466685346969, 0.19218740162213108, -0.10186942045151269, -0.08982218369525222, 0.6254502922229302, 0.02536081579789855, -0.2016660690233245, -0.06486006079033346, 0.0215032415052006], [-0.051938936955782444, 0.17517722288344517, 0.09849703543363798, -0.03159823181571685, -0.07338227865836908, -0.06770221635552956, -0.17230521360914694, -0.22155987507357372, 0.08149473141658646, 0.14599788581949757, -0.1256138069727733, -0.20274375640703846, -0.18598439641832484, -0.0963854230732174, -0.29905183278188185, -0.11368214521238197, 0.1019417414115343, 0.04101777669357137, 0.06899391692011742, -0.14002085771374104, 0.1811660044616056, -0.01626695201776151, -0.12347752937008286, 0.2799635774231227, -0.017355830439720558, -0.12376353619348304, 0.02042243574544951, -0.02836745763410811, 0.10365667996139125, -0.09216339244978113, 0.08047169314794977, 0.07471266763817748], [-0.08766569891237619, 0.10865894023810489, -0.08550617893210324, 0.2568150191584198, -0.05582043973848058, 0.09396163367929249, -0.006391337229702575, -0.013918635068939875, 0.35236584357781175, 0.09590715661453296, -0.061048664606569936, 0.10131910823096392, -0.08411463902239805, -0.1176214657783261, 0.3542892540418514, 0.10665442301221498, -0.09410726494322572, -0.12318938386929537, -0.10199148280121235, 0.3022224206242104, -0.007493481863828901, -0.07799337635462318, -0.06985794046849463, 0.09419906148684414, 0.11449781675884886, -0.05451516277269358, -0.008854541574226897, 0.028770826520860694, -0.27084699138870527, 0.011566182709262591, -0.1070544409695766, -0.11809782799687865], [-0.08560841207127645, -0.009879978770447056, -0.12424254930147278, -0.18180298426953592, 0.13021607714230543, 0.10465080671026382, 0.04071255075767478, 0.3090578283775534, 0.12002335688879072, 0.019336037452081026, -0.12609602800655342, -0.003022379430889442, 0.209180239144987, 0.008130477392488143, 0.31562115454665235, -0.3769572994465318, 0.008440564015292492, 0.06573871060892326, -0.019013581017329112, 0.015187465630086834, -0.008698532531816383, 0.1718427575483633, 0.08302227868373807, -0.061060013396618894, 0.17655805973705516, -0.1327671709457844, 0.10255483226544004, 0.1554351565423864, -0.05583714269548865, -0.028998189606931388, -0.09199936028121969, 0.039585453959833636], [0.02405991108192593, 0.00027657086018960424, -0.11213442776735599, 0.0061454284299548335, 0.08767645967404795, 0.0235848630173679, 0.012673570541644339, -0.04307048972298742, -0.025475469639013506, -0.03202614129651045, 0.029404214297498024, -0.15170266526938134, 0.05823556739931671, -0.02349594178100395, 0.09292329133333652, -0.03445551292070758, 0.0026621188704611834, -0.0630172292713038, 0.10031677526588907, -0.21704956734275677, -0.09429072961309429, -0.013059337552124258, 0.08886097743390657, 0.048895911732966785, -0.010380769143704865, -0.14496453070858747, -0.01849864585010219, 0.03237372242409415, 0.18511178767016928, 0.06221252216057821, -0.15290928749284466, 0.17733776636116375], [-0.0395564215479629, -0.09508597195250378, 0.14698432467990297, -0.0057022661533097365, -0.02306936525867048, 0.01310965789961454, 0.07595148315886627, 0.08593004712050885, -0.15480668364071926, 0.21057686767585684, 0.09468615879956256, -0.03545597119717456, -0.08146439723259316, -0.09690124307582064, 0.005533247465359782, -0.0648016294189627, -0.0766720586106625, 0.05864051911023091, 0.03468201049370677, -0.03923134815126338, 0.08309952353642926, 0.11181568559973226, -0.10960260373297283, -0.05412943511857004, 0.10990302869562722, 0.07189405658150542, 0.02266988564379923, 0.11879011891294641, -0.12963870340169656, -0.14791378337711042, -0.08665073572768982, 0.026439822315492332], [-0.07969563985162398, -0.03562921740876243, -0.09799795243881812, -0.0625231853826873, -0.12753530610978683, 0.03705123345418338, 0.07118077122523996, -0.03528845465486407, -0.05485099339589095, -0.08820395845218257, 0.05312512156361892, 0.041484768809154776, 0.14460514355452897, -0.10954720366375337, 0.014594123871214316, 0.04439913996466691, -0.037143365575108944, 0.06214385384520951, -0.14388098702009544, 0.2140159041735613, -0.13406879573652516, 0.09970431604404495, -0.11029583950300963, 0.10608495205320626, -0.06311375804579479, 0.01584229071622113, 0.0055658111201119815, 0.08390822878391423, -0.0033041030771687693, -0.2967183709983944, -0.07600587900644339, 0.01505707947480702], [-0.04950664600677075, 0.11613008876387453, 0.10153269959744687, -0.029008297736461155, -0.15026388810985175, 0.17186241506989153, 0.09892346691807323, -0.020427248273676143, 0.1891501603680132, -0.024223826294884395, -0.11371197204183754, -0.011569277162428114, 0.09460663776745971, -0.09600178439498092, 0.23783120314395195, -0.09010617841502758, 0.0801914023657495, 0.07496945815671228, -0.02583497153956924, 0.06831274033572673, -0.1455021946621938, 0.10345702283083097, -0.03652682836521209, -0.03406970890607595, 0.06686172079645178, 0.1027310733283054, 0.07730546157249768, 0.24668773760406185, 0.12364719341124998, 0.12835066324204059, -0.05398639371765149, 0.0014884912614893048], [0.055633682268492815, 0.0247167421944837, 0.03016352331732358, 0.029327905508116488, 0.07214787731099384, 0.02473051618566287, -0.13801952233428735, -0.18201184269378345, -0.07678615784836657, 0.1227968442132553, -0.008452148800245243, -0.05149071045895832, -0.124124946624949, -0.1938168107839183, -0.08126827216862104, 0.11705461218759076, 0.08297799279447457, 0.121486940684674, -0.09397104635967046, -0.10485852990583026, -0.024845546076987177, -0.0615022526668722, -0.3481976182690299, -0.05842590465476122, 0.015158560603329896, 0.14854847392713455, 0.016074305913174443, 0.11975651934828171, -0.06400398661216174, -0.02526885812478079, -0.38994217300543393, 0.03126970965151494], [0.03824447770625819, 0.23658910157909865, -0.043151949681092594, 0.16089157810019697, -0.12485691700748211, -0.03857454483534967, -0.06190063001737212, -0.370618100720316, 0.5253670769904509, 0.034335800886069745, -0.07905448096678758, 0.20409551613611432, 0.12547458007270065, -0.06797152030284874, -0.10577516283765251, -0.17425262574409894, -0.021254935445055703, -0.14123723567796276, -0.13384325194768548, 0.5725817288529361, 0.12876158495991424, -0.06766446817726737, -0.16392143151228833, -0.1289897000961807, 0.36596981545918633, 0.034612287584929034, -0.0012052214591871007, -0.09312644380781597, 0.06524676697366782, -0.07084652365979932, -0.02904000800729554, 0.012890759575212357], [-0.05368350507788023, -0.2640967130100349, 0.11174060677843543, -0.12810323890229752, 0.2552789055118863, 0.028651802545518273, -0.09866120636314957, 0.13402357036074625, 0.04462978287535435, -0.19941706709516485, -0.07410805036847287, -0.2911019961310297, 0.19106761879515327, -0.05209048460850116, 0.2803444707920623, 0.029228226333768457, -0.01019191440868415, 0.23175301276769167, 0.06498091964462456, 0.0467342252371777, -0.03312751200727872, 0.4186410099921862, 0.1763593738759443, -0.08878210158108812, -0.05647454379255519, 0.037207802475328886, -0.11797871598073337, -0.3072791418832919, -0.0384065479699765, 0.028147110259062233, 0.12824812336831645, 0.018106341566243914]], "bias1": [-0.051964060703278074, 0.11324317985464688, -0.01854450986855187, -0.015956193312892414, 0.09109798493126207, 0.18976313352457047, 0.2241965094619313, 0.1805864005552856, 0.3648569431027985, 0.09044673593980523, 0.0, 0.049074337435095386, 0.1374375240959185, -0.06833580811135347, 0.38195857877103107, -0.00470561399388102, -0.04298986513482816, 0.03308271535782525, -0.020403732270286554, 0.26872944706706203, -0.0022668020315750343, -0.013076697405521455, 0.1317749652288481, 0.02870288217066039, 0.19290853758800672, -0.04574960941059676, -0.0030605072630819127, 0.31884661831804045, 0.03309532177032015, 0.0, 0.0, -0.04630073120719912], "weights2": [[0.8035587253021674, -1.2281203527005595, -0.026361867278766292, 0.12182456671855739, 0.8597439792587998, 0.11605118910024197, 0.8013388057718992], [-0.5344313783634993, 0.3402137164956366, 0.37929885770777694, -1.258472818957732, 0.1760379743308255, -0.24848607896079764, -1.9595664835018771], [0.9582521309912254, -0.3620986595149051, -0.8528374358140691, -0.37748530249339884, 0.13787347893439963, 1.507511302580097, -0.1642517140996384], [0.4378164334077696, 1.3556936413740805, 0.5060208902637403, 1.0588851161542703, -0.5048180137816225, 0.8633645081034877, -0.08941580172532672], [1.0617711777813803, -1.0179681877935522, -0.8064834155132957, 1.2608497007913435, -0.19835973030127663, -0.39975311796707536, 0.13924106627535213], [-0.7376644357008969, 1.2919098495020314, -1.3261926976120375, -0.17154087702416132, 0.33586929670649784, -0.14362389047718338, -0.7800312059356437], [-0.897844975172957, 0.40090505438449753, -1.0783968082259727, 0.6324053975903123, -1.536136631791952, -0.5503003128450901, 0.00892757466878126], [-1.3273192694302764, 0.586622563958607, -0.14005810030078492, -1.0606827486326647, -1.5707302457523107, -1.5709828493666131, 0.08556366409708699], [-1.2853086287466229, -1.4466034441029019, -0.39765264335285816, 2.2316577649451315, 0.21093758451022745, 0.9601369511984932, 0.18825779204147458], [0.7506054480101727, -1.3630017092316387, -0.4692086401944856, 0.2518898354035008, -0.01699581223322019, -0.1310949689468987, -0.6990777294760936], [-0.2583831027042033, -0.7741978238913314, -2.421833014859781, -1.1945084417055867, 0.47565293887443977, 1.5570779556716277, 1.813580171323687], [0.037826716616414936, 0.8478229336271682, 0.8304134678984304, -0.7079930375979688, -1.7377740185084094, 0.09379730603406303, -1.8294958041231535], [-0.34402831171713305, 0.59176623504792, -1.454675876158697, 0.02073130699720422, 1.203428719318885, 0.4245229794604593, 0.6016102211580104], [0.9058223758365337, 1.7320588109385278, 0.1500981576089962, 1.2287292793337663, -0.06511838443612401, -0.5469587055925011, 0.3139046229237377], [-0.7772774773144998, -0.6956231126941077, -0.8375048758431142, -2.3483597700062955, 0.0010491227199266773, -1.1486155945340248, -0.07634829469070678], [1.4445433401605192, -0.5223794768900099, -0.5434661751513242, 1.36356085884113, 0.5442034432005903, 0.982582016676168, -0.35658234027707847], [0.7474658742752369, -0.6865323023228683, -0.6766963117289725, 0.5956252853944191, -0.5976086453607936, 0.7665895337331687, 2.3910921613674647], [-1.6968327935866923, -0.7657165529377611, 1.0941263377876902, -0.15455423403345558, 1.1594547799925503, -1.041004398591848, 0.3712988977100975], [-0.15005613214853605, 0.13972105204381932, 0.3299330479427531, -1.2205290866659722, -1.0743003408002139, 1.3983629412261875, 0.2931673595469453], [-0.00017297304420637043, -0.11201237607863558, 0.22056658201234822, -1.1921725456191317, -1.0873195917454663, 1.5266838262060098, 0.17232263910449494], [0.8502092521970762, -0.6060090063264411, 1.3760300626662436, 0.3449543272113561, 0.48353253387521167, 0.5476968114088784, -0.7974330433568515], [-1.8794920663087016, -1.0890008206175283, 1.6017262807619774, 1.287333194712171, -0.3679477845557863, -0.32461185178774177, 1.1085212189686506], [-0.18124055977929004, -1.3134983798967526, 1.2379711195635819, 0.46917864362047684, -2.535936613661169, -0.36195717977228353, 0.18296878677026185], [0.4313266037576456, 0.11988981853710862, -0.6963295622329932, -0.13424853521112118, 0.2917253888697749, -0.28267964856779343, -0.4252542125144173], [1.188982534352976, -0.9898462024664997, -0.4303519882376422, -2.0520246151474364, 0.4984234024234773, 0.9427238355386673, 0.5186581468246032], [0.9162988029773638, 0.4394078895983208, 0.34042120944527804, 0.4726132487065557, -0.26848134595063433, 1.1875370845215565, -0.3500734613842913], [-1.4632544167237214, 0.8493924044446906, 1.8502684686972115, -0.9601744104853256, -0.10234418550136896, -0.6858908804800014, -0.3802172215542355], [-0.10165210776966704, -1.3563512830677276, -0.4994565023977647, -1.5167036670524083, -0.6151977257182794, -1.0924889641144564, -1.123584780334428], [-1.7198105483280182, 1.2193665132166656, 0.5070367955333331, -1.9192801198527907, -0.5868115231427075, -0.6723319555356403, -0.6934609591513351], [-1.4468835125564838, 0.7543857213684552, -0.395863785507999, 0.4681489094895136, 0.5267557651664272, 1.375445311670887, -1.8148722777431434], [1.7386021114249555, 1.2688152738912304, 0.5730659923355066, 2.3835922292341163, 0.20497859792723128, 0.8214789160702182, -0.7384139812679597], [1.1338068449571843, 0.16685433972135522, -0.4533788752827012, 2.114940765263757, -0.30292942586917554, 0.006901904261705125, -0.19828991477585792]], "bias2": [-0.17025051389889154, -0.13862951866963016, -0.2524384938134918, -0.07278823519459972, -0.10801236251644264, 0.12171531952081571, -0.015413678503089036], "operations": ["rotate", "flip", "transpose", "translate", "recolor", "crop", "pad"]}